{"gradients/fc.weight":{"bins":[-13.644753456115723,-13.23615550994873,-12.827557563781738,-12.418959617614746,-12.010361671447754,-11.601763725280762,-11.19316577911377,-10.784567832946777,-10.375969886779785,-9.967371940612793,-9.5587739944458,-9.150176048278809,-8.741578102111816,-8.332980155944824,-7.924382209777832,-7.51578426361084,-7.107186317443848,-6.6985883712768555,-6.289990425109863,-5.881392478942871,-5.472794532775879,-5.064196586608887,-4.6555986404418945,-4.247000694274902,-3.83840274810791,-3.429804801940918,-3.021206855773926,-2.6126089096069336,-2.2040109634399414,-1.7954130172729492,-1.386815071105957,-0.9782171249389648,-0.5696201324462891,-0.16102218627929688,0.2475757598876953,0.6561737060546875,1.0647716522216797,1.4733695983886719,1.881967544555664,2.2905654907226562,2.6991634368896484,3.1077613830566406,3.516359329223633,3.924957275390625,4.333555221557617,4.742153167724609,5.150751113891602,5.559349060058594,5.967947006225586,6.376544952392578,6.78514289855957,7.1937408447265625,7.602338790893555,8.010936737060547,8.419534683227539,8.828132629394531,9.236730575561523,9.645328521728516,10.053926467895508,10.4625244140625,10.871122360229492,11.279720306396484,11.688318252563477,12.096916198730469,12.505514144897461],"_type":"histogram","values":[1,0,0,0,0,0,0,0,0,0,0,0,0,0,0,0,0,0,0,0,0,1,0,0,0,0,2,0,0,2,3,9,18,196,10,7,3,0,1,0,0,1,0,0,0,0,1,0,0,0,0,0,0,0,0,0,0,0,0,0,0,0,0,1]},"_step":31,"gradients/lstm.weight_ih_l0":{"values":[1,0,0,1,0,1,0,1,2,1,1,1,2,1,1,1,6,5,4,4,9,9,16,20,70,705,29449,286,50,22,11,8,4,6,3,1,2,2,4,1,3,0,0,1,0,2,0,1,0,0,0,1,0,0,0,0,0,0,0,0,0,0,0,1],"bins":[-0.5507316589355469,-0.5298540592193604,-0.5089764595031738,-0.4880989193916321,-0.46722131967544556,-0.44634371995925903,-0.4254661500453949,-0.40458858013153076,-0.38371098041534424,-0.3628333806991577,-0.3419558107852936,-0.32107824087142944,-0.3002006411552429,-0.2793230414390564,-0.25844547152519226,-0.23756788671016693,-0.2166903018951416,-0.19581271708011627,-0.17493513226509094,-0.1540575474500656,-0.13317996263504028,-0.11230237782001495,-0.09142479300498962,-0.0705472081899643,-0.049669623374938965,-0.028792038559913635,-0.007914453744888306,0.012963131070137024,0.033840715885162354,0.05471830070018768,0.07559588551521301,0.09647347033023834,0.1173509955406189,0.13822858035564423,0.15910616517066956,0.17998374998569489,0.20086133480072021,0.22173891961574554,0.24261650443077087,0.263494074344635,0.28437167406082153,0.30524927377700806,0.3261268436908722,0.34700441360473633,0.36788201332092285,0.3887596130371094,0.4096371829509735,0.43051475286483765,0.45139235258102417,0.4722699522972107,0.49314752221107483,0.514025092124939,0.5349026918411255,0.555780291557312,0.5766578912734985,0.5975354313850403,0.6184130311012268,0.6392906308174133,0.6601681709289551,0.6810457706451416,0.7019233703613281,0.7228009700775146,0.7436785697937012,0.7645561099052429,0.7854337096214294],"_type":"histogram"},"gradients/lstm.bias_ih_l0":{"bins":[-0.1458442211151123,-0.13987106084823608,-0.13389791548252106,-0.12792475521564484,-0.12195160984992981,-0.11597844958305359,-0.11000529676675797,-0.10403214395046234,-0.09805899113416672,-0.0920858383178711,-0.08611268550157547,-0.08013953268527985,-0.07416637241840363,-0.068193219602108,-0.06222006678581238,-0.056246913969516754,-0.05027376115322113,-0.04430060833692551,-0.03832745552062988,-0.03235429897904396,-0.026381146162748337,-0.020407993346452713,-0.01443483866751194,-0.008461684919893742,-0.002488531172275543,0.003484622575342655,0.009457776322960854,0.015430930070579052,0.02140408381819725,0.027377236634492874,0.033350393176078796,0.03932354599237442,0.04529671370983124,0.05126986652612686,0.057243019342422485,0.06321617215871811,0.06918932497501373,0.07516248524188995,0.08113563805818558,0.0871087908744812,0.09308194369077682,0.09905509650707245,0.10502824932336807,0.1110014021396637,0.11697456240653992,0.12294771522283554,0.12892086803913116,0.1348940134048462,0.1408671736717224,0.14684033393859863,0.15281347930431366,0.15878663957118988,0.1647597849369049,0.17073294520378113,0.17670609056949615,0.18267925083637238,0.1886523962020874,0.19462555646896362,0.20059871673583984,0.20657186210155487,0.2125450223684311,0.21851816773414612,0.22449132800102234,0.23046447336673737,0.2364376336336136],"_type":"histogram","values":[1,0,1,0,0,0,0,0,0,1,0,0,0,0,0,0,0,0,0,0,2,5,15,81,850,50,9,2,2,1,0,0,0,0,1,1,0,0,0,0,0,0,0,0,0,0,0,0,0,0,0,0,0,0,1,0,0,0,0,0,0,0,0,1]},"gradients/lstm.weight_hh_l0":{"_type":"histogram","values":[1,0,1,2,0,2,0,1,0,2,1,0,1,3,2,4,2,2,4,7,5,6,9,12,16,17,21,29,81,168,450,3621,255374,1630,293,130,70,41,21,22,11,13,9,12,8,4,7,4,2,2,1,2,3,2,1,4,2,0,1,0,2,2,0,1],"bins":[-0.12805849313735962,-0.12410350888967514,-0.12014852464199066,-0.11619354039430618,-0.1122385561466217,-0.10828357189893723,-0.10432858765125275,-0.10037360340356827,-0.09641861915588379,-0.09246364235877991,-0.08850865811109543,-0.08455367386341095,-0.08059868961572647,-0.07664370536804199,-0.07268872112035751,-0.06873373687267303,-0.06477875262498856,-0.06082376837730408,-0.0568687841296196,-0.05291379988193512,-0.04895881563425064,-0.04500383511185646,-0.04104885086417198,-0.0370938666164875,-0.033138882368803024,-0.029183898121118546,-0.025228913873434067,-0.021273931488394737,-0.01731894724071026,-0.01336396299302578,-0.009408979676663876,-0.005453995894640684,-0.0014990121126174927,0.0024559716694056988,0.00641095545142889,0.010365938767790794,0.014320923015475273,0.018275907263159752,0.02223088964819908,0.02618587389588356,0.03014085814356804,0.03409584239125252,0.038050826638936996,0.042005810886621475,0.045960791409015656,0.049915775656700134,0.05387075990438461,0.05782574415206909,0.06178072839975357,0.06573571264743805,0.06969069689512253,0.073645681142807,0.07760066539049149,0.08155564963817596,0.08551063388586044,0.08946561813354492,0.0934205949306488,0.09737557917833328,0.10133056342601776,0.10528554767370224,0.10924053192138672,0.1131955161690712,0.11715050041675568,0.12110548466444016,0.12506046891212463]},"val/median_kge":0.7042301344595682,"lr":0.0001,"_runtime":101899,"epoch":31,"train_loss":0.14947769554388282,"_wandb":{"runtime":101899},"_timestamp":1.7736158326423469e+09,"test/median_kge":0.6001281573193791,"gradients/fc.bias":{"bins":[8.939478874206543,8.939478874206543],"_type":"histogram","values":[1]},"val/median_nse":0.5479329981001202,"val_loss":0.4389136950547285,"gradients/lstm.bias_hh_l0":{"_type":"histogram","values":[1,0,1,0,0,0,0,0,0,1,0,0,0,0,0,0,0,0,0,0,2,5,15,81,850,50,9,2,2,1,0,0,0,0,1,1,0,0,0,0,0,0,0,0,0,0,0,0,0,0,0,0,0,0,1,0,0,0,0,0,0,0,0,1],"bins":[-0.1458442211151123,-0.13987106084823608,-0.13389791548252106,-0.12792475521564484,-0.12195160984992981,-0.11597844958305359,-0.11000529676675797,-0.10403214395046234,-0.09805899113416672,-0.0920858383178711,-0.08611268550157547,-0.08013953268527985,-0.07416637241840363,-0.068193219602108,-0.06222006678581238,-0.056246913969516754,-0.05027376115322113,-0.04430060833692551,-0.03832745552062988,-0.03235429897904396,-0.026381146162748337,-0.020407993346452713,-0.01443483866751194,-0.008461684919893742,-0.002488531172275543,0.003484622575342655,0.009457776322960854,0.015430930070579052,0.02140408381819725,0.027377236634492874,0.033350393176078796,0.03932354599237442,0.04529671370983124,0.05126986652612686,0.057243019342422485,0.06321617215871811,0.06918932497501373,0.07516248524188995,0.08113563805818558,0.0871087908744812,0.09308194369077682,0.09905509650707245,0.10502824932336807,0.1110014021396637,0.11697456240653992,0.12294771522283554,0.12892086803913116,0.1348940134048462,0.1408671736717224,0.14684033393859863,0.15281347930431366,0.15878663957118988,0.1647597849369049,0.17073294520378113,0.17670609056949615,0.18267925083637238,0.1886523962020874,0.19462555646896362,0.20059871673583984,0.20657186210155487,0.2125450223684311,0.21851816773414612,0.22449132800102234,0.23046447336673737,0.2364376336336136]},"test/median_nse":0.5380668494335858}